0.199219882488250732 -0.110463730990886688 -0.237619310617446899 0.018558166921138763 -0.139360845088958740 -0.205217540264129639 -0.001290640328079462 -0.100550293922424316 0.002029078081250191 -0.107067644596099854 0.055856410413980484 -0.005129673983901739 0.062620811164379120 0.133745789527893066 0.050053667277097702 -0.069393262267112732 -0.218361765146255493 0.022460360080003738 -0.145302191376686096 0.169576749205589294
0.068560712039470673 0.126079112291336060 0.065470166504383087 -0.096746534109115601 0.166054114699363708 -0.094127252697944641 -0.090126611292362213 0.150759130716323853 -0.222163856029510498 0.001252528280019760 -0.115922935307025909 0.193787932395935059 0.111988782882690430 0.188829243183135986 0.017285834997892380 -0.100639782845973969 0.165799379348754883 -0.144491627812385559 -0.334084510803222656 -0.128128245472908020
0.225231111049652100 -0.032188050448894501 -0.140089467167854309 0.269803792238235474 0.181447252631187439 -0.002943205647170544 0.188317969441413879 -0.241906762123107910 0.115597553551197052 0.040620647370815277 0.136222526431083679 -0.385327041149139404 0.017325222492218018 0.021072756499052048 0.104391559958457947 0.024674551561474800 -0.001022970420308411 -0.320676416158676147 -0.385170608758926392 -0.061241123825311661
0.246975556015968323 -0.018443753942847252 0.145323425531387329 -0.070496276021003723 0.136255383491516113 -0.051986381411552429 -0.195522144436836243 -0.065451651811599731 0.013250008225440979 -0.165027305483818054 -0.224839448928833008 -0.241479992866516113 0.141075119376182556 0.211386710405349731 0.054431468248367310 -0.058398317545652390 -0.091947034001350403 0.180823892354965210 0.065666481852531433 0.147669121623039246
-0.059289723634719849 0.193661913275718689 -0.108897075057029724 -0.136644124984741211 0.099877618253231049 -0.038658801466226578 0.017830368131399155 0.135543927550315857 0.194887533783912659 0.146374776959419250 -0.196084499359130859 0.136627256870269775 0.102227985858917236 -0.042224280536174774 -0.168578147888183594 -0.091331645846366882 0.161543145775794983 -0.108306936919689178 -0.040761832147836685 -0.017202176153659821
-0.204416632652282715 0.031180024147033691 0.214534431695938110 0.082113228738307953 -0.047854296863079071 -0.049235120415687561 -0.155691847205162048 -0.130152791738510132 -0.129686743021011353 0.009740609675645828 -0.034525901079177856 0.087774142622947693 0.172269359230995178 -0.006164740771055222 -0.135362610220909119 -0.068276882171630859 -0.042204879224300385 0.083648458123207092 0.097153067588806152 -0.202218860387802124
0.021748721599578857 0.030207561329007149 -0.227007716894149780 0.032696634531021118 0.120295129716396332 0.031470950692892075 0.157005488872528076 -0.021317528560757637 0.193085610866546631 -0.025492342188954353 -0.159347429871559143 0.113577574491500854 -0.078721359372138977 -0.196099683642387390 0.148101717233657837 -0.118342392146587372 -0.159175813198089600 0.022117365151643753 0.145907804369926453 0.228134348988533020
-0.054529570043087006 0.157896041870117188 0.269602656364440918 0.251456826925277710 0.027662016451358795 -0.135224580764770508 -0.097996264696121216 0.154771164059638977 -0.093206912279129028 -0.046211969107389450 -0.214297026395797729 -0.092038370668888092 0.124363809823989868 -0.076369389891624451 0.012406769208610058 0.102195188403129578 0.283744096755981445 0.236576840281486511 -0.025590997189283371 -0.150706678628921509
-0.140800908207893372 0.292488783597946167 0.219546198844909668 -0.232272937893867493 -0.114830397069454193 0.172718808054924011 -0.144202873110771179 0.218002527952194214 0.105278447270393372 -0.129566520452499390 0.396980553865432739 0.305957555770874023 -0.086054138839244843 -0.283615559339523315 -0.031831160187721252 0.232773974537849426 0.005462856497615576 -0.099429711699485779 0.054738756269216537 -0.348746627569198608
-0.126629859209060669 0.164403825998306274 -0.136598780751228333 0.149546578526496887 0.059914331883192062 0.185916975140571594 -0.216500788927078247 0.098411023616790771 0.050202388316392899 -0.217437446117401123 -0.132698461413383484 0.079022884368896484 0.243977665901184082 0.058755278587341309 -0.093655727803707123 -0.118820160627365112 0.254920572042465210 0.095187202095985413 0.336271673440933228 -0.168983370065689087
-0.015062849037349224 0.096021778881549835 -0.237815469503402710 0.250328272581100464 0.086837075650691986 0.203763142228126526 -0.148980408906936646 0.097280725836753845 -0.101346015930175781 0.179406985640525818 0.138587787747383118 -0.121041752398014069 0.107614941895008087 -0.001285034115426242 -0.101645439863204956 0.004432258661836386 -0.093309663236141205 -0.206120774149894714 0.211429789662361145 0.090910375118255615
0.020269829779863358 0.091542743146419525 0.281596660614013672 0.141435235738754272 0.238080367445945740 0.052426032721996307 0.489460408687591553 -0.066572725772857666 -0.041328247636556625 -0.332299381494522095 0.214795142412185669 -0.214514449238777161 0.371515661478042603 -0.268644630908966064 0.315232455730438232 0.224198326468467712 -0.084147028625011444 -0.051666647195816040 -0.191673278808593750 0.118941888213157654
0.156257718801498413 -0.038774065673351288 0.141452133655548096 0.254769593477249146 -0.269349157810211182 0.128638714551925659 -0.074763990938663483 0.002305601490661502 -0.039643332362174988 -0.251151800155639648 -0.143615007400512695 -0.063635140657424927 -0.091077446937561035 0.063038110733032227 0.175811752676963806 -0.114177614450454712 0.129026278853416443 0.092633247375488281 -0.188993349671363831 0.119703181087970734
0.333810418844223022 -0.176137745380401611 0.251177877187728882 0.063430018723011017 -0.041616283357143402 -0.145584702491760254 -0.021266883239150047 -0.152575701475143433 -0.133658975362777710 0.147272333502769470 -0.047186881303787231 -0.113379478454589844 0.316123723983764648 -0.055688984692096710 -0.032452393323183060 -0.165327981114387512 0.168376043438911438 -0.200190022587776184 0.126384913921356201 0.252494931221008301
-0.107480555772781372 -0.107796952128410339 0.014413940720260143 -0.323250025510787964 -0.088648587465286255 -0.180673196911811829 -0.070135697722434998 -0.169729813933372498 0.218487203121185303 -0.130649879574775696 -0.039056912064552307 -0.134529024362564087 -0.275402784347534180 -0.021023036912083626 0.070096835494041443 0.021929044276475906 -0.088221020996570587 -0.021716924384236336 -0.287534266710281372 0.026253096759319305
-0.311605095863342285 -0.020719658583402634 -0.045390844345092773 -0.087690405547618866 -0.016485691070556641 0.125022411346435547 -0.102075926959514618 0.291368544101715088 -0.067259147763252258 0.041084155440330505 -0.047216463834047318 0.260351687669754028 -0.119989059865474701 -0.027252357453107834 0.109457135200500488 0.092203468084335327 -0.095036990940570831 0.082700036466121674 -0.074750699102878571 -0.178810641169548035
0.312564522027969360 0.277494043111801147 0.489464342594146729 0.337834119796752930 -0.116447903215885162 0.026182314381003380 -0.061813279986381531 -0.071608282625675201 0.110774479806423187 -0.209137111902236938 -0.007751254830509424 0.223739743232727051 0.288243770599365234 0.034222275018692017 -0.042395211756229401 -0.082362040877342224 0.235594943165779114 0.230886161327362061 -0.248974159359931946 -0.200092285871505737
0.235457554459571838 -0.074631363153457642 0.019772203639149666 0.058861855417490005 0.142810076475143433 0.018913757055997849 0.088570579886436462 -0.044853754341602325 0.006416178774088621 -0.051771748811006546 0.234681308269500732 0.182922691106796265 0.122107520699501038 0.042182940989732742 0.124611496925354004 0.048828244209289551 -0.107587330043315887 0.104264020919799805 -0.351309984922409058 -0.030209191143512726
0.012980569154024124 -0.006226514000445604 0.331043988466262817 0.107891857624053955 0.143676102161407471 0.262212365865707397 -0.040152583271265030 0.047657255083322525 -0.250846982002258301 -0.001451866468414664 0.053154747933149338 0.336750656366348267 0.143831506371498108 -0.191484674811363220 0.086405165493488312 0.155533075332641602 0.107446804642677307 0.486348599195480347 -0.153852880001068115 0.119372814893722534
-0.023398913443088531 -0.120351992547512054 -0.012120020575821400 -0.075705498456954956 0.091759875416755676 -0.268000006675720215 0.084007851779460907 0.038525704294443130 0.133464738726615906 -0.329631567001342773 -0.111154690384864807 0.121501445770263672 -0.256303638219833374 -0.192352488636970520 0.136943772435188293 0.036106750369071960 -0.316531658172607422 -0.025950122624635696 -0.140892416238784790 0.159945756196975708
